digraph Tree {
node [shape=box] ;
0 [label="location_distance <= 13176560.0\nentropy = 1.983\nsamples = 199\nvalue = [49, 38, 58, 54]"] ;
1 [label="maxX <= 0.9077\nentropy = 0.9947\nsamples = 105\nvalue = [48, 0, 57, 0]"] ;
0 -> 1 [labeldistance=2.5, labelangle=45, headlabel="True"] ;
2 [label="entropy = 0.0\nsamples = 57\nvalue = [0, 0, 57, 0]"] ;
1 -> 2 ;
3 [label="entropy = 0.0\nsamples = 48\nvalue = [48, 0, 0, 0]"] ;
1 -> 3 ;
4 [label="location_distance <= 13176568.0\nentropy = 1.1271\nsamples = 94\nvalue = [1, 38, 1, 54]"] ;
0 -> 4 [labeldistance=2.5, labelangle=-45, headlabel="False"] ;
5 [label="maxX <= -0.1789\nentropy = 0.4448\nsamples = 41\nvalue = [1, 38, 0, 2]"] ;
4 -> 5 ;
6 [label="entropy = 1.5219\nsamples = 5\nvalue = [1, 2, 0, 2]"] ;
5 -> 6 ;
7 [label="entropy = 0.0\nsamples = 36\nvalue = [0, 36, 0, 0]"] ;
5 -> 7 ;
8 [label="location_distance <= 14239054.0\nentropy = 0.135\nsamples = 53\nvalue = [0, 0, 1, 52]"] ;
4 -> 8 ;
9 [label="entropy = 0.0\nsamples = 52\nvalue = [0, 0, 0, 52]"] ;
8 -> 9 ;
10 [label="entropy = 0.0\nsamples = 1\nvalue = [0, 0, 1, 0]"] ;
8 -> 10 ;
}